34 64
34 0.016533 -0.031215 0.348525 -0.043127 0.140130 -0.265106 0.060366 0.029910 -0.143893 -0.050008 0.025588 -0.044540 -0.165590 -0.223294 0.375460 0.127670 0.018536 -0.080853 0.059491 0.154657 -0.247130 -0.165417 -0.077616 0.099975 -0.205524 -0.246557 -0.292161 0.151829 -0.067641 0.083540 -0.010760 0.019617 0.119499 -0.065734 -0.468854 -0.153743 -0.259262 -0.261544 0.002161 0.167638 -0.000963 0.077229 -0.112218 -0.064334 -0.256275 0.318229 -0.207987 0.003936 -0.009993 -0.162422 -0.243167 0.110111 -0.275393 -0.106935 0.095370 0.022840 0.083942 -0.223400 0.146892 -0.066649 0.095959 -0.126654 0.049721 -0.267087
1 -0.008867 0.265375 -0.341687 0.058675 -0.035537 -0.074018 -0.080900 -0.128951 -0.052418 0.070207 -0.202132 -0.064214 0.028871 0.101433 -0.032418 0.053905 0.138786 0.007195 -0.228228 -0.017670 0.180543 0.251569 -0.214694 0.128809 0.231329 0.242623 -0.132030 -0.348827 -0.073661 0.199479 -0.313487 0.064162 0.355778 0.189100 -0.068659 0.004918 0.114641 0.172154 -0.183907 -0.122097 0.352919 0.154820 -0.142494 0.294951 -0.015785 0.242186 0.164690 -0.164598 -0.093516 -0.041307 -0.309296 0.108963 -0.030091 0.024703 0.062057 -0.322793 -0.065364 -0.070934 -0.045033 0.035890 -0.130163 0.097547 0.175812 0.172187
33 0.132444 0.128555 0.317352 -0.219650 -0.035299 -0.171823 -0.077215 0.049138 -0.039773 -0.060792 -0.037786 -0.024045 -0.170499 -0.314456 0.572146 -0.044754 -0.104279 -0.190293 0.141825 0.020423 -0.182679 -0.111038 -0.011345 0.040661 -0.189120 -0.043404 -0.357949 0.138806 -0.080092 0.048847 0.061320 -0.140065 0.151473 -0.090091 -0.450891 -0.170919 -0.188199 -0.220422 -0.005678 0.268569 0.002927 -0.002559 0.002684 -0.339680 -0.246982 0.409654 -0.169529 -0.013758 -0.149033 -0.037000 -0.160051 0.048829 -0.192929 0.016955 0.028389 0.309441 0.210868 -0.380977 0.290971 0.045075 -0.044028 -0.164509 0.192499 -0.232617
3 0.002976 -0.048652 0.160738 0.283502 0.083487 -0.302817 0.224375 -0.076148 0.193838 0.006445 0.196685 0.041435 -0.072990 -0.098965 -0.198059 -0.057769 0.047061 -0.075401 -0.062220 0.267653 -0.080187 -0.343875 -0.223490 0.206918 -0.095611 -0.199441 -0.116594 -0.053941 -0.110183 0.141359 -0.002720 0.225737 -0.022015 0.038893 -0.128426 0.099122 -0.157241 -0.086519 -0.132778 -0.124787 0.178114 0.101960 -0.117421 0.300100 -0.094273 -0.036515 -0.050915 0.116903 0.024276 -0.112348 -0.219996 -0.082799 -0.092057 -0.174732 0.063795 -0.276211 -0.172734 0.082766 -0.194635 0.050329 0.063059 0.194475 -0.032466 -0.097995
2 -0.145119 0.324713 0.096898 0.193563 0.053447 -0.366384 0.228852 -0.187312 0.018649 0.137644 -0.220408 -0.030434 0.076282 -0.105963 -0.124675 -0.080512 0.243662 -0.020547 -0.117167 -0.130204 -0.114351 -0.066116 -0.425749 0.200382 0.015293 0.017659 -0.276130 -0.363188 -0.059304 0.210460 -0.241415 0.113184 0.370304 0.104550 -0.310569 0.131784 0.051797 0.035424 -0.066973 -0.198369 0.474151 0.044762 -0.344731 0.245441 -0.224857 0.409912 -0.106574 -0.302601 0.091198 0.063610 -0.314878 0.092877 0.101602 -0.026017 0.114321 -0.221695 -0.228076 -0.180348 -0.320242 0.052750 0.066130 0.108888 0.211555 -0.081783
4 0.064486 0.376515 0.060547 0.248668 -0.044980 -0.215430 0.126764 0.043697 0.147418 0.071624 -0.211575 0.063556 0.127872 -0.065521 -0.094494 -0.160898 0.182249 -0.024966 -0.303824 -0.003265 -0.133821 -0.219393 -0.527255 0.134051 -0.080145 0.094714 -0.031453 -0.511599 -0.108982 0.224814 -0.245013 0.196101 0.269178 0.141109 -0.220545 0.288313 0.072786 0.157320 -0.061918 -0.276081 0.348375 0.028018 -0.254248 0.261077 -0.249483 0.275438 -0.035346 -0.202983 0.064196 0.084792 -0.198844 0.052039 0.092137 0.003432 0.058249 -0.261733 -0.007975 0.099540 -0.371647 0.132727 0.057958 0.317452 0.165518 0.020057
32 -0.229812 -0.277289 0.252210 0.139963 -0.094191 -0.404820 0.290384 -0.034741 0.199075 0.013404 0.436147 0.036109 -0.236583 0.011900 -0.238673 0.050286 0.079946 -0.011939 0.471235 0.048960 -0.077324 -0.073899 0.192687 0.230496 0.012696 0.037675 -0.302062 0.333925 -0.291025 0.008939 -0.124439 -0.066296 -0.136878 -0.004444 0.144377 0.024858 -0.143157 0.049651 -0.221291 0.279436 0.076038 -0.015768 -0.005339 0.070468 -0.224045 -0.241635 0.087085 0.207607 0.012692 -0.080168 -0.127075 -0.234242 -0.011198 -0.120001 -0.182571 -0.104401 -0.119565 -0.282133 -0.018599 0.170197 -0.085817 -0.097540 0.061395 -0.077334
24 -0.014134 -0.253457 0.224294 -0.067426 -0.054800 -0.138739 -0.013842 0.015552 -0.150781 -0.040779 0.388332 0.031882 -0.156969 -0.138139 0.456273 0.441991 -0.067941 -0.001833 0.177158 -0.049315 -0.197715 -0.118531 0.317060 -0.011440 0.003813 -0.010363 -0.157854 0.441836 -0.310786 -0.016501 -0.046307 -0.156030 -0.212837 -0.002456 -0.172248 -0.254303 -0.262182 -0.097423 -0.092405 0.421700 0.050072 0.085879 0.021567 -0.297266 -0.417374 -0.066795 -0.131054 0.177037 -0.061096 0.038047 0.033658 0.105703 -0.151123 0.066608 -0.135102 0.077667 0.054003 -0.412302 0.329424 0.200414 -0.043994 -0.168429 -0.106746 -0.149081
14 0.037183 0.130414 0.112948 0.186629 0.112372 -0.119149 0.305674 0.015929 0.188647 0.081484 -0.145546 -0.007701 0.078612 0.023017 -0.289990 -0.158464 0.116779 -0.116189 -0.049781 0.046928 -0.057688 -0.276660 -0.273570 0.075586 0.071363 -0.088251 -0.098702 -0.198372 -0.078104 0.215786 -0.214311 0.112298 0.172914 0.038061 -0.145937 0.235848 0.015234 0.190655 -0.092996 -0.282384 0.093794 0.014870 -0.125154 0.151670 -0.065963 0.018932 -0.004169 -0.073056 0.115397 0.007406 -0.041900 -0.061167 0.002528 -0.002579 0.058218 -0.105704 -0.027703 0.095448 -0.233108 0.063724 0.042724 0.158628 0.096353 -0.013478
9 0.058586 0.116316 0.209559 -0.139101 0.007084 -0.236481 0.068185 0.016837 0.236520 0.059972 0.001297 0.004723 -0.096419 -0.189420 -0.030872 -0.289500 -0.029427 -0.123662 0.142819 -0.018077 -0.003013 -0.172565 -0.074552 0.148501 -0.019470 -0.083245 -0.268821 -0.051421 0.066587 0.155174 0.026889 0.031422 0.171049 -0.130646 -0.149541 0.100771 -0.010792 -0.154615 -0.041488 0.002227 0.054893 0.053937 0.066288 -0.008963 -0.075046 0.126847 0.073800 -0.035609 -0.157991 -0.024825 -0.150870 -0.234667 -0.083375 -0.089908 -0.051334 0.123431 -0.086088 -0.184481 -0.082337 -0.010805 -0.053692 0.000362 0.156151 -0.085296
7 -0.362983 0.298745 -0.600502 -0.031549 -0.232555 -0.024060 -0.611327 -0.257437 -0.306315 -0.163627 -0.355804 -0.014508 -0.013080 0.066952 0.161787 -0.177437 0.156941 0.239033 -0.210331 -0.003598 0.381785 0.959073 -0.259766 0.188189 -0.164970 0.455533 -0.001548 -0.473745 0.390711 -0.305530 0.229430 0.115680 0.300465 0.232318 0.273095 -0.033452 0.241395 -0.276668 -0.033540 0.034240 0.314754 -0.209626 -0.122845 0.373859 0.371699 0.538072 0.253729 -0.186739 -0.203616 -0.164910 -0.405431 0.116238 0.285112 -0.174086 0.092300 -0.398961 -0.064136 0.071174 -0.051373 -0.401191 -0.063200 0.027578 0.320585 0.131080
6 -0.439790 0.146055 -0.680210 0.090783 -0.236977 -0.050417 -0.469783 -0.285164 -0.135945 -0.172628 -0.226166 0.004904 -0.039551 0.163479 -0.060325 -0.241101 0.158478 0.199733 0.005067 0.123009 0.447916 0.997184 -0.177683 0.303118 -0.114386 0.559726 -0.023090 -0.389467 0.262745 -0.360618 0.208275 0.108709 0.180308 0.296961 0.445370 0.005714 0.301634 -0.146544 -0.153037 0.039960 0.271771 -0.293214 -0.071549 0.432441 0.516045 0.330503 0.367714 -0.021916 -0.188442 -0.244969 -0.389466 -0.025741 0.354331 -0.170186 0.024018 -0.454643 -0.021043 0.142125 -0.079572 -0.323850 -0.108079 0.068943 0.358818 0.165038
28 -0.009974 -0.315636 0.265750 0.169887 0.000875 -0.092227 0.273268 0.118013 0.155084 -0.076648 0.385116 0.015991 -0.096865 -0.074466 0.142524 0.133143 -0.047117 -0.216369 0.370365 0.257949 -0.123919 -0.191086 0.182546 0.125242 -0.015342 0.044671 -0.279864 0.459483 -0.475831 0.011488 -0.122604 -0.202080 -0.236800 0.063513 -0.124087 -0.041245 -0.256811 0.143986 -0.236348 0.232595 -0.119966 -0.013211 -0.017000 -0.160065 -0.194914 -0.195995 -0.052474 0.333082 0.063509 -0.080999 0.022267 -0.053562 -0.098844 0.132397 -0.067183 0.043644 0.286351 -0.146457 0.221742 0.276654 -0.030216 0.009026 0.032437 -0.046914
30 0.068504 -0.162780 0.456828 -0.337612 0.012239 -0.212870 -0.072278 0.233616 -0.125393 -0.044970 0.202410 -0.046260 -0.285638 -0.216830 0.538515 0.185770 -0.076352 -0.051838 0.278746 0.021211 -0.222684 -0.130461 0.244803 0.072475 -0.095076 -0.156526 -0.357712 0.441754 -0.122941 0.113930 -0.068103 -0.137851 0.085557 -0.199522 -0.347486 -0.136297 -0.338041 -0.246822 -0.033416 0.463179 -0.211411 0.160416 0.108988 -0.256375 -0.415644 0.128429 -0.028058 0.091503 -0.150796 -0.142098 -0.150937 -0.048767 -0.401912 -0.061364 -0.118476 0.167798 0.177495 -0.430168 0.301863 -0.042471 -0.037686 -0.270324 0.034165 -0.175800
31 0.325470 0.156938 0.219378 -0.137388 0.229046 -0.077875 0.093563 0.009678 0.115211 0.101578 -0.104917 -0.066781 -0.084540 -0.198491 0.087800 -0.141996 -0.074457 -0.158762 -0.167874 0.178790 -0.026663 -0.413752 -0.137647 0.003328 -0.020126 -0.408985 -0.159368 -0.062030 0.152279 0.280688 0.005672 0.128560 0.206424 -0.166405 -0.440758 -0.062329 -0.115389 -0.178114 0.069929 -0.184535 -0.016400 0.244147 0.046754 0.030949 0.007113 0.202936 -0.117374 -0.058890 -0.099863 -0.078421 -0.156545 -0.071836 -0.359310 -0.061204 0.140262 0.130739 -0.087681 -0.023201 0.044627 -0.080463 0.034953 0.032598 0.003545 -0.094794
8 -0.019051 0.233636 -0.011120 0.337523 0.101276 -0.175418 0.306860 -0.108581 0.210620 0.092503 -0.185839 -0.010010 0.109404 0.003770 -0.346641 -0.204760 0.181223 -0.113720 -0.149024 0.106450 -0.001072 -0.197298 -0.423234 0.153937 0.030916 -0.017259 -0.105954 -0.392147 -0.086025 0.205317 -0.214118 0.171626 0.211022 0.142707 -0.163351 0.212077 0.082269 0.187596 -0.125252 -0.387995 0.314363 0.004848 -0.262504 0.316777 0.006603 0.162786 -0.043728 -0.122037 0.132198 0.014676 -0.165620 -0.004438 0.084888 -0.014650 0.139065 -0.240340 -0.097270 0.139896 -0.308135 0.089198 0.067764 0.265853 0.161729 0.011439
5 -0.405350 0.161549 -0.635520 0.085682 -0.208711 -0.102360 -0.284781 -0.280715 -0.044112 -0.054191 -0.168833 -0.007436 -0.002219 0.218600 -0.277048 -0.157677 0.194698 0.210413 0.024152 -0.085187 0.396084 0.810707 -0.123114 0.225854 0.121502 0.527334 0.007863 -0.407416 0.168800 -0.208876 0.005407 0.120858 0.196421 0.271329 0.492792 0.068364 0.366115 -0.011547 -0.190595 -0.011267 0.325226 -0.200725 -0.021719 0.390344 0.347853 0.171506 0.415400 -0.091051 -0.162773 -0.095792 -0.295127 -0.079975 0.360721 -0.148426 -0.056914 -0.390553 -0.191974 0.043215 -0.165515 -0.179134 -0.166757 0.026331 0.267693 0.184713
11 -0.373018 0.290599 -0.525428 -0.061680 -0.193265 -0.184191 -0.402131 -0.280800 -0.183136 -0.001530 -0.270097 -0.049614 -0.009620 0.134433 -0.165518 -0.104241 0.219182 0.285855 -0.154717 -0.283559 0.341713 0.738626 -0.178929 0.136814 0.106529 0.368385 0.032236 -0.493345 0.358399 -0.134610 -0.009459 0.185089 0.334089 0.173980 0.381635 0.093964 0.310835 -0.177564 -0.064368 0.006350 0.388897 -0.060722 -0.033930 0.417205 0.157726 0.290626 0.373170 -0.262014 -0.194504 -0.013444 -0.345609 -0.024104 0.275395 -0.228801 -0.066508 -0.405912 -0.367618 -0.036156 -0.210255 -0.299727 -0.157890 -0.040437 0.208970 0.125234
26 -0.216770 -0.512624 0.255851 0.387915 -0.162528 -0.173311 0.274017 0.079242 0.014319 -0.162369 0.686952 0.075790 -0.195876 -0.001199 0.212350 0.386703 0.003004 -0.145965 0.520192 0.339763 -0.175082 -0.029256 0.318771 0.237638 -0.075526 0.247130 -0.355420 0.686429 -0.768317 -0.089226 -0.163487 -0.309974 -0.410783 0.172337 0.012424 -0.161280 -0.431602 0.286203 -0.353212 0.484444 0.028874 -0.064028 -0.188398 -0.100028 -0.335011 -0.273020 -0.123130 0.447729 0.151085 -0.134871 -0.048401 0.087884 -0.060237 0.156291 -0.076560 -0.191159 0.334056 -0.298609 0.309639 0.415641 -0.021242 -0.029241 0.014177 0.008064
25 -0.323529 -0.452434 0.086109 0.445684 -0.218848 -0.230867 0.237055 -0.092966 -0.038816 -0.103433 0.674731 0.099556 -0.159332 0.070536 0.117431 0.504967 0.081520 -0.023912 0.438124 0.161686 -0.137440 0.059802 0.303344 0.226919 0.027897 0.336157 -0.274569 0.552621 -0.750589 -0.115337 -0.182855 -0.240968 -0.403505 0.245393 0.132545 -0.195488 -0.337129 0.299786 -0.380907 0.454742 0.258072 -0.070402 -0.243780 -0.059401 -0.378965 -0.274708 -0.102088 0.352201 0.150636 -0.047294 -0.029758 0.162964 0.090460 0.137853 -0.119871 -0.283878 0.123980 -0.369604 0.232407 0.453605 -0.039742 -0.028394 0.003522 0.020088
20 0.053479 0.243253 0.106867 -0.025877 0.081177 -0.095324 0.123848 0.004566 0.028182 0.128730 -0.188326 -0.010423 0.037887 -0.017620 -0.181031 -0.072058 0.096299 0.049896 -0.179651 -0.177844 -0.023042 -0.187030 -0.189128 -0.076582 0.077690 -0.180136 0.000979 -0.216463 0.118283 0.180355 -0.143073 0.123298 0.181024 -0.074333 -0.126648 0.106451 0.048393 0.006491 0.061149 -0.177854 0.100198 0.084660 -0.040403 0.071434 -0.139250 0.140553 -0.012412 -0.228709 0.060448 0.105629 -0.033871 -0.007454 -0.061177 -0.022682 0.043026 0.025106 -0.203216 -0.005472 -0.168181 -0.026484 0.027132 0.011064 -0.002361 -0.034183
29 -0.015280 -0.040158 0.254318 0.179876 -0.083086 -0.158139 0.285214 0.022360 0.375255 -0.070716 0.190068 0.108939 -0.072201 -0.089840 -0.125302 -0.297512 -0.042972 -0.264022 0.354431 0.242105 -0.057363 -0.207493 -0.078373 0.231630 -0.129587 0.107474 -0.346858 0.169512 -0.294882 0.036733 0.086689 -0.131831 -0.078673 0.005127 -0.055118 0.138269 -0.156422 0.146441 -0.184963 0.033553 0.023734 -0.183952 -0.048353 -0.087356 -0.032173 -0.044756 -0.029245 0.218755 0.033780 -0.079559 -0.039683 -0.154408 0.062285 0.052608 -0.015630 0.099481 0.189938 -0.104462 -0.022237 0.214842 -0.030284 0.109130 0.220876 -0.050758
17 -0.303585 0.264097 -0.888552 0.023953 -0.141404 0.242473 -0.674930 -0.371875 -0.315126 -0.204885 -0.473912 -0.071784 0.104775 0.125267 0.159082 -0.216293 0.065380 0.151396 -0.288692 0.169123 0.537816 1.110492 -0.245285 0.133087 -0.115623 0.521909 0.128676 -0.544343 0.452821 -0.435300 0.353318 0.099112 0.240179 0.345736 0.313102 -0.136602 0.404573 -0.235136 -0.023457 -0.121453 0.251941 -0.280238 -0.101554 0.351706 0.765205 0.517898 0.222590 -0.100232 -0.220331 -0.198935 -0.313019 0.182659 0.380495 -0.088809 0.200074 -0.331702 0.057484 0.314163 0.047582 -0.430735 -0.073686 0.092807 0.306923 0.181487
19 0.140405 -0.030064 0.489794 -0.378002 0.010666 -0.293891 -0.032492 0.128222 0.065339 0.005647 0.134433 -0.009092 -0.279359 -0.287046 0.329000 -0.070775 -0.120386 -0.086548 0.230320 -0.063039 -0.204888 -0.297139 0.139639 0.067975 -0.144146 -0.262278 -0.327117 0.282551 0.084149 0.134998 0.097583 -0.038839 0.114875 -0.284272 -0.307463 -0.037667 -0.242436 -0.357257 0.063549 0.306985 -0.129847 0.119107 0.192444 -0.246239 -0.328307 0.112406 -0.033658 0.040176 -0.208646 -0.064834 -0.124828 -0.200057 -0.318801 -0.154040 -0.125654 0.293443 -0.044077 -0.399658 0.136968 -0.085323 -0.058247 -0.233588 0.033232 -0.249269
15 0.128205 0.021553 0.531758 -0.384929 -0.011907 -0.342791 -0.035693 0.138160 0.096217 0.006998 0.131496 -0.004318 -0.281283 -0.328247 0.339938 -0.128047 -0.106345 -0.093023 0.254757 -0.071764 -0.205058 -0.286312 0.086812 0.106238 -0.161845 -0.241579 -0.396885 0.253582 0.067537 0.158349 0.098986 -0.042392 0.156486 -0.285619 -0.350546 -0.009325 -0.257376 -0.372530 0.036312 0.330152 -0.110201 0.118104 0.173136 -0.236753 -0.372185 0.168629 -0.021424 0.021792 -0.232178 -0.068571 -0.183973 -0.218615 -0.316571 -0.158467 -0.128332 0.285604 -0.040992 -0.449606 0.103778 -0.080326 -0.060031 -0.222887 0.086571 -0.258528
22 -0.072860 0.357209 -0.137924 0.193161 0.047305 -0.137537 0.132987 -0.137870 -0.004492 0.153682 -0.283125 -0.019475 0.143237 0.065523 -0.339702 -0.045766 0.234055 0.113451 -0.312601 -0.207990 0.054032 -0.012482 -0.356443 0.001632 0.160306 0.004087 0.067160 -0.496019 0.066492 0.167281 -0.271248 0.211470 0.260277 0.105179 -0.029990 0.138826 0.191676 0.128098 -0.014699 -0.319902 0.371141 0.055818 -0.210967 0.295825 -0.083600 0.227122 0.025861 -0.338685 0.120516 0.135875 -0.139163 0.090970 0.121105 -0.026313 0.101914 -0.221126 -0.301016 0.066094 -0.316665 0.016310 0.035430 0.138404 0.071091 0.048206
18 -0.049651 0.363717 -0.152374 0.155724 0.064747 -0.091708 0.108914 -0.132550 -0.002061 0.154111 -0.316240 -0.028558 0.149039 0.069684 -0.344686 -0.102773 0.210248 0.095543 -0.321308 -0.186657 0.074682 -0.005362 -0.366421 -0.030260 0.139619 -0.029241 0.084120 -0.504384 0.132401 0.150621 -0.206441 0.204668 0.266450 0.074496 -0.021902 0.150953 0.211085 0.102721 0.021630 -0.357804 0.315560 0.048214 -0.179860 0.285492 -0.011289 0.221305 0.029561 -0.336465 0.106602 0.133513 -0.108700 0.070799 0.109311 -0.034128 0.106280 -0.184868 -0.285592 0.124582 -0.314721 -0.026448 0.039565 0.130961 0.064751 0.053544
23 0.134541 -0.058426 0.509037 -0.393729 0.024840 -0.309578 -0.051548 0.123752 0.080266 0.009699 0.163189 -0.022548 -0.315690 -0.314483 0.348354 -0.082971 -0.136465 -0.086757 0.258941 -0.019897 -0.189002 -0.287421 0.151652 0.093833 -0.155135 -0.284141 -0.354768 0.311665 0.089315 0.125229 0.123052 -0.033274 0.103018 -0.286590 -0.325158 -0.060163 -0.269388 -0.394863 0.049425 0.332879 -0.151692 0.134935 0.199314 -0.246355 -0.311187 0.117038 -0.030774 0.067562 -0.234680 -0.106289 -0.159624 -0.229568 -0.348057 -0.167336 -0.113885 0.279049 -0.042856 -0.422057 0.157421 -0.107263 -0.055470 -0.245954 0.041211 -0.256750
13 -0.156595 0.257632 -0.116448 0.321450 0.035901 -0.280358 0.264489 -0.145290 0.144027 0.138838 -0.210384 -0.015521 0.109177 0.142305 -0.551781 -0.138061 0.292515 0.065457 -0.160016 -0.104732 0.028179 -0.037849 -0.415176 0.160743 0.144123 0.074519 -0.016955 -0.499925 -0.008750 0.207991 -0.331390 0.272361 0.300509 0.149564 0.067708 0.321210 0.194118 0.224397 -0.136872 -0.361589 0.397734 0.021041 -0.249109 0.466438 -0.049253 0.075082 0.131600 -0.245305 0.115351 0.046635 -0.200620 -0.055444 0.181061 -0.120267 0.037473 -0.418792 -0.306718 0.114543 -0.484100 0.016387 0.020649 0.222812 0.136484 0.071279
16 0.135916 -0.052068 0.493136 -0.323475 0.010644 -0.299684 -0.006557 0.122455 0.117581 -0.005644 0.169824 0.000039 -0.280939 -0.284376 0.299003 -0.115335 -0.125784 -0.117143 0.266682 0.023045 -0.180822 -0.295943 0.132658 0.106400 -0.159109 -0.250753 -0.361093 0.294527 0.053331 0.136727 0.118028 -0.050592 0.090966 -0.264960 -0.307626 -0.021537 -0.262719 -0.333922 0.018633 0.300387 -0.146461 0.115468 0.177858 -0.211471 -0.278239 0.093587 -0.034017 0.083874 -0.214020 -0.102436 -0.146542 -0.225115 -0.310417 -0.145190 -0.114819 0.251851 -0.008701 -0.376794 0.130729 -0.071166 -0.047609 -0.192194 0.062909 -0.225705
10 0.207044 0.105891 0.377580 -0.010776 0.116747 -0.115887 0.264621 0.093481 0.337420 0.002459 -0.051794 0.034545 -0.011041 -0.223825 0.004625 -0.358996 -0.093310 -0.307066 0.104363 0.186012 -0.159927 -0.460544 -0.220402 0.091470 -0.154968 -0.196806 -0.269142 0.004718 -0.061276 0.175526 0.101490 -0.011637 0.077772 -0.115649 -0.360013 0.149092 -0.109379 -0.046490 -0.012656 -0.132549 -0.108016 -0.046398 0.009053 -0.144779 -0.044440 0.119879 -0.138712 0.069976 0.001124 -0.051024 -0.021415 -0.141172 -0.099495 0.020178 0.064158 0.270120 0.171153 -0.006667 -0.055209 0.069134 0.056655 0.100845 0.135840 -0.168987
21 0.137532 -0.036088 0.455661 -0.365149 0.010798 -0.255213 -0.063586 0.116445 0.037524 -0.005587 0.147362 0.000881 -0.267825 -0.280175 0.376493 -0.048293 -0.127908 -0.085021 0.229594 -0.022518 -0.182597 -0.242947 0.143020 0.074362 -0.160139 -0.234446 -0.316928 0.292170 0.056708 0.106545 0.116870 -0.066978 0.085268 -0.255415 -0.322338 -0.073352 -0.240230 -0.345398 0.054227 0.322431 -0.138935 0.112910 0.177913 -0.260741 -0.291949 0.130658 -0.043001 0.054249 -0.204629 -0.092266 -0.136478 -0.163456 -0.314406 -0.123538 -0.101563 0.277741 0.014080 -0.384217 0.176061 -0.071223 -0.042341 -0.216559 0.047457 -0.235876
27 0.228692 -0.056769 0.384566 -0.380365 0.059684 -0.027791 -0.139057 0.226819 -0.226923 0.007198 0.081215 -0.024915 -0.134874 -0.203168 0.573045 0.293038 -0.139244 0.007052 -0.019421 -0.179019 -0.297786 -0.263849 0.210540 -0.182245 -0.053600 -0.254158 -0.050852 0.309706 -0.002833 0.114888 -0.027400 -0.084789 0.023960 -0.219766 -0.362695 -0.164248 -0.240481 -0.239290 0.162554 0.332106 -0.219259 0.197750 0.148604 -0.378967 -0.440641 0.079858 -0.157721 -0.038198 -0.097714 0.053625 0.055268 0.088951 -0.345319 0.007063 -0.088425 0.295569 0.095962 -0.328586 0.280740 -0.010561 0.003845 -0.260707 -0.159209 -0.204546
12 -0.185729 0.136961 -0.247061 0.047565 -0.082876 -0.050173 -0.036866 -0.099181 0.014942 0.067093 -0.126485 0.004028 0.077162 0.164139 -0.366407 -0.110200 0.142006 0.178268 -0.060874 -0.202446 0.155161 0.255983 -0.096028 0.018134 0.130911 0.169918 0.125520 -0.295144 0.149506 -0.032245 -0.078092 0.113428 0.116959 0.066089 0.319744 0.139839 0.244822 0.065522 -0.016100 -0.115225 0.143511 -0.045955 -0.004699 0.240155 0.095705 -0.017445 0.211966 -0.172089 0.019207 0.069782 -0.051500 -0.065478 0.207106 -0.077157 -0.055417 -0.186606 -0.242655 0.095831 -0.259392 -0.081371 -0.055859 0.022960 0.049264 0.119147
